{
    "parameters": [
        "Rjb",
        "Rrup",
        "D_hyp",
        "magnitude",
        "Vs30",
        "mechanism",
        "Z2pt5",
        "Rx",
        "Ztor"
    ],
    "output-ims": [
        "PGA",
        "PGV",
        "PGD",
        "Ds595",
        "Ds575",
        "SA_RotD50(0.01)",
        "SA_RotD50(0.05)",
        "SA_RotD50(0.1)",
        "SA_RotD50(0.15)",
        "SA_RotD50(0.2)",
        "SA_RotD50(0.3)",
        "SA_RotD50(0.4)",
        "SA_RotD50(0.5)",
        "SA_RotD50(0.6)",
        "SA_RotD50(0.7)",
        "SA_RotD50(0.8)",
        "SA_RotD50(0.9)",
        "SA_RotD50(1.0)",
        "SA_RotD50(1.2)",
        "SA_RotD50(1.4)",
        "SA_RotD50(1.7)",
        "SA_RotD50(2.0)",
        "SA_RotD50(2.5)",
        "SA_RotD50(3.0)",
        "SA_RotD50(3.5)",
        "SA_RotD50(4.0)",
        "SA_RotD50(5.0)",
        "SA_RotD100(0.01)",
        "SA_RotD100(0.05)",
        "SA_RotD100(0.1)",
        "SA_RotD100(0.15)",
        "SA_RotD100(0.2)",
        "SA_RotD100(0.3)",
        "SA_RotD100(0.4)",
        "SA_RotD100(0.5)",
        "SA_RotD100(0.6)",
        "SA_RotD100(0.7)",
        "SA_RotD100(0.8)",
        "SA_RotD100(0.9)",
        "SA_RotD100(1.0)",
        "SA_RotD100(1.2)",
        "SA_RotD100(1.4)",
        "SA_RotD100(1.7)",
        "SA_RotD100(2.0)",
        "SA_RotD100(2.5)",
        "SA_RotD100(3.0)",
        "SA_RotD100(3.5)",
        "SA_RotD100(4.0)",
        "SA_RotD100(5.0)",
        "SA_geomean(0.01)",
        "SA_geomean(0.05)",
        "SA_geomean(0.1)",
        "SA_geomean(0.15)",
        "SA_geomean(0.2)",
        "SA_geomean(0.3)",
        "SA_geomean(0.4)",
        "SA_geomean(0.5)",
        "SA_geomean(0.6)",
        "SA_geomean(0.7)",
        "SA_geomean(0.8)",
        "SA_geomean(0.9)",
        "SA_geomean(1.0)",
        "SA_geomean(1.2)",
        "SA_geomean(1.4)",
        "SA_geomean(1.7)",
        "SA_geomean(2.0)",
        "SA_geomean(2.5)",
        "SA_geomean(3.0)",
        "SA_geomean(3.5)",
        "SA_geomean(4.0)",
        "SA_geomean(5.0)",
        "FIV3(0.1)",
        "FIV3(0.15)",
        "FIV3(0.2)",
        "FIV3(0.3)",
        "FIV3(0.4)",
        "FIV3(0.5)",
        "FIV3(0.7)",
        "FIV3(1.0)",
        "FIV3(1.5)",
        "FIV3(2.0)",
        "FIV3(2.5)",
        "FIV3(3.0)",
        "FIV3(3.5)",
        "FIV3(4.0)",
        "Sa_avg2_RotD50(0.1)",
        "Sa_avg2_RotD50(0.15)",
        "Sa_avg2_RotD50(0.2)",
        "Sa_avg2_RotD50(0.3)",
        "Sa_avg2_RotD50(0.4)",
        "Sa_avg2_RotD50(0.5)",
        "Sa_avg2_RotD50(0.7)",
        "Sa_avg2_RotD50(1.0)",
        "Sa_avg2_RotD50(1.5)",
        "Sa_avg2_RotD50(2.0)",
        "Sa_avg2_RotD50(2.5)",
        "Sa_avg2_RotD50(3.0)",
        "Sa_avg2_RotD50(3.5)",
        "Sa_avg2_RotD50(4.0)",
        "Sa_avg2_RotD100(0.1)",
        "Sa_avg2_RotD100(0.15)",
        "Sa_avg2_RotD100(0.2)",
        "Sa_avg2_RotD100(0.3)",
        "Sa_avg2_RotD100(0.4)",
        "Sa_avg2_RotD100(0.5)",
        "Sa_avg2_RotD100(0.7)",
        "Sa_avg2_RotD100(1.0)",
        "Sa_avg2_RotD100(1.5)",
        "Sa_avg2_RotD100(2.0)",
        "Sa_avg2_RotD100(2.5)",
        "Sa_avg2_RotD100(3.0)",
        "Sa_avg2_RotD100(3.5)",
        "Sa_avg2_RotD100(4.0)",
        "Sa_avg2_geomean(0.1)",
        "Sa_avg2_geomean(0.15)",
        "Sa_avg2_geomean(0.2)",
        "Sa_avg2_geomean(0.3)",
        "Sa_avg2_geomean(0.4)",
        "Sa_avg2_geomean(0.5)",
        "Sa_avg2_geomean(0.7)",
        "Sa_avg2_geomean(1.0)",
        "Sa_avg2_geomean(1.5)",
        "Sa_avg2_geomean(2.0)",
        "Sa_avg2_geomean(2.5)",
        "Sa_avg2_geomean(3.0)",
        "Sa_avg2_geomean(3.5)",
        "Sa_avg2_geomean(4.0)",
        "Sa_avg3_RotD50(0.1)",
        "Sa_avg3_RotD50(0.15)",
        "Sa_avg3_RotD50(0.2)",
        "Sa_avg3_RotD50(0.3)",
        "Sa_avg3_RotD50(0.4)",
        "Sa_avg3_RotD50(0.5)",
        "Sa_avg3_RotD50(0.7)",
        "Sa_avg3_RotD50(1.0)",
        "Sa_avg3_RotD50(1.5)",
        "Sa_avg3_RotD50(2.0)",
        "Sa_avg3_RotD50(2.5)",
        "Sa_avg3_RotD50(3.0)",
        "Sa_avg3_RotD50(3.5)",
        "Sa_avg3_RotD50(4.0)",
        "Sa_avg3_RotD100(0.1)",
        "Sa_avg3_RotD100(0.15)",
        "Sa_avg3_RotD100(0.2)",
        "Sa_avg3_RotD100(0.3)",
        "Sa_avg3_RotD100(0.4)",
        "Sa_avg3_RotD100(0.5)",
        "Sa_avg3_RotD100(0.7)",
        "Sa_avg3_RotD100(1.0)",
        "Sa_avg3_RotD100(1.5)",
        "Sa_avg3_RotD100(2.0)",
        "Sa_avg3_RotD100(2.5)",
        "Sa_avg3_RotD100(3.0)",
        "Sa_avg3_RotD100(3.5)",
        "Sa_avg3_RotD100(4.0)",
        "Sa_avg3_geomean(0.1)",
        "Sa_avg3_geomean(0.15)",
        "Sa_avg3_geomean(0.2)",
        "Sa_avg3_geomean(0.3)",
        "Sa_avg3_geomean(0.4)",
        "Sa_avg3_geomean(0.5)",
        "Sa_avg3_geomean(0.7)",
        "Sa_avg3_geomean(1.0)",
        "Sa_avg3_geomean(1.5)",
        "Sa_avg3_geomean(2.0)",
        "Sa_avg3_geomean(2.5)",
        "Sa_avg3_geomean(3.0)",
        "Sa_avg3_geomean(3.5)",
        "Sa_avg3_geomean(4.0)"
    ],
    "biases": [
        [
            -3.2957005500793457,
            0.7686346173286438,
            0.9253166317939758,
            -1.4793809652328491,
            2.051832914352417,
            1.4935780763626099,
            1.0508164167404175,
            0.20655077695846558,
            1.4525812864303589
        ],
        [
            -0.005644684657454491,
            -0.568771481513977,
            -0.012121792882680893,
            -0.003067838726565242,
            0.011072082445025444,
            0.043755412101745605,
            -0.024143502116203308,
            -0.0216439887881279,
            -0.01354729849845171,
            -0.10793540626764297,
            -0.004403923638164997,
            0.018135160207748413,
            -0.012822314165532589,
            -0.0039395480416715145,
            -0.1330164670944214,
            -0.0035258419811725616,
            0.020175926387310028,
            0.0007221301784738898,
            -0.0047613647766411304,
            0.0039574820548295975,
            -0.0018917078850790858,
            0.005279419012367725,
            0.009071983397006989,
            0.014013527892529964,
            -0.0029797388706356287,
            -0.04963596910238266,
            -0.01671723648905754,
            0.018029050901532173,
            0.009679420851171017,
            -0.003478937316685915,
            -0.002166853053495288,
            -0.0035797280725091696,
            0.025393743067979813,
            0.0004198237438686192,
            -0.007834287360310555,
            0.011189197190105915,
            0.013051792047917843,
            0.007631158921867609,
            -0.0028055706061422825,
            -0.004913956392556429,
            0.017518069595098495,
            0.011424978263676167,
            -0.01681501604616642,
            0.014765039086341858,
            0.0089963898062706,
            0.0013747437624260783,
            0.011059122160077095,
            -0.005525604356080294,
            0.015596018172800541,
            0.007794562727212906,
            0.0010006832890212536,
            0.02939761057496071,
            0.009850556962192059,
            -0.010754256509244442,
            -0.12149419635534286,
            -0.015507793985307217,
            0.026766307651996613,
            -0.00010589187877485529,
            -0.008169076405465603,
            -0.013991760089993477,
            0.32232576608657837,
            0.015437424182891846,
            -0.002959786681458354,
            -0.003975036554038525,
            0.03150138631463051,
            0.020306268706917763,
            0.027201097458600998,
            0.2273693084716797,
            0.0011794971069321036,
            -0.2110104113817215,
            0.01345661748200655,
            -0.037153489887714386,
            -0.033141396939754486,
            0.01945609226822853,
            -0.007370488718152046,
            0.007314261514693499,
            0.011894376017153263,
            -0.0022916884627193213,
            -0.001592865213751793,
            0.004409620072692633,
            -0.003633311251178384,
            0.006902897730469704,
            0.013034087605774403,
            -0.027044672518968582,
            0.011667598970234394,
            0.057128969579935074,
            -0.006541934330016375,
            -0.005226286128163338,
            0.15612876415252686,
            -0.045802172273397446,
            -0.007406249176710844,
            0.1713964343070984,
            0.014971279539167881,
            0.005646890960633755,
            0.23638902604579926,
            -0.0029624346643686295,
            0.020555874332785606,
            0.012570989318192005,
            -0.03223399445414543,
            0.004953629802912474,
            -0.019198797643184662,
            0.033613745123147964,
            -0.0324314646422863,
            -0.019130779430270195,
            0.0016529519343748689,
            -0.2224571257829666,
            -0.02043849416077137,
            0.015486348420381546,
            -0.20695427060127258,
            -0.016957147046923637,
            0.007038518786430359,
            -0.01768503710627556,
            0.007059657480567694,
            0.007256797980517149,
            0.013965836726129055,
            0.009030129760503769,
            0.12083667516708374,
            -0.016792969778180122,
            -0.023875156417489052,
            -0.015403390862047672,
            -0.00018002263095695525,
            0.037083569914102554,
            -0.007033723406493664,
            0.01849890686571598,
            -0.005105019547045231,
            -0.03753882646560669,
            -0.04223666712641716,
            0.023805685341358185,
            0.012066597118973732,
            -0.004715603776276112,
            -0.025576414540410042,
            -0.03647072985768318,
            -0.005884299520403147,
            -0.008308995515108109,
            0.0060964226722717285,
            0.0057398551143705845,
            0.0064014289528131485,
            0.006958825513720512,
            -0.0031761545687913895,
            -0.011466208845376968,
            0.01728520728647709,
            -0.013679610565304756,
            0.0004855311708524823,
            0.010580786503851414,
            -0.04111359640955925,
            -0.003499857382848859,
            0.01268516294658184,
            0.014759331941604614,
            -0.023510830476880074,
            -0.0026359206531196833
        ],
        [
            -0.8046184778213501,
            0.5008969306945801,
            0.48971235752105713,
            0.6956223249435425,
            0.7234890460968018,
            -0.7939202785491943,
            -0.7294104695320129,
            -0.5471197366714478,
            -0.5259453058242798,
            -0.4708282947540283,
            -0.4577130377292633,
            -0.47828513383865356,
            -0.5429036617279053,
            -0.5697840452194214,
            -0.5215838551521301,
            -0.5162667632102966,
            -0.5504676103591919,
            -0.5702813863754272,
            -0.5706693530082703,
            -0.5845893621444702,
            -0.629249095916748,
            -0.6693262457847595,
            -0.7714955806732178,
            -0.7344865202903748,
            -0.7283280491828918,
            -0.7197026610374451,
            -0.6873778700828552,
            -0.7568060755729675,
            -0.6891430616378784,
            -0.5167085528373718,
            -0.4622652232646942,
            -0.4552461802959442,
            -0.3945664167404175,
            -0.4512925148010254,
            -0.508419394493103,
            -0.48489585518836975,
            -0.45999178290367126,
            -0.45753002166748047,
            -0.48863735795021057,
            -0.5385797023773193,
            -0.5138190984725952,
            -0.5213457942008972,
            -0.5694157481193542,
            -0.6049181818962097,
            -0.7037204504013062,
            -0.6778295040130615,
            -0.637677788734436,
            -0.6571634411811829,
            -0.623595118522644,
            -0.810539960861206,
            -0.7141061425209045,
            -0.5611007809638977,
            -0.5055099129676819,
            -0.4542139768600464,
            -0.46119052171707153,
            -0.513380765914917,
            -0.5752973556518555,
            -0.5505682826042175,
            -0.574876070022583,
            -0.5333424210548401,
            -0.5340242981910706,
            -0.585930585861206,
            -0.6067575812339783,
            -0.59171462059021,
            -0.6695700883865356,
            -0.6850298643112183,
            -0.7930464744567871,
            -0.7717252969741821,
            -0.7276207208633423,
            -0.7434405088424683,
            -0.7082622647285461,
            0.28571292757987976,
            0.41924402117729187,
            0.46606120467185974,
            0.5791425704956055,
            0.6123231649398804,
            0.6589500308036804,
            0.7332717776298523,
            0.7834274768829346,
            0.7974867820739746,
            0.7847620844841003,
            0.8421810269355774,
            0.85587477684021,
            0.8341803550720215,
            0.8477833867073059,
            -0.5906781554222107,
            -0.5658846497535706,
            -0.5076917409896851,
            -0.5399817824363708,
            -0.5350630879402161,
            -0.5299449563026428,
            -0.5441146492958069,
            -0.5917138457298279,
            -0.6843960881233215,
            -0.6913875341415405,
            -0.7022931575775146,
            -0.6835744380950928,
            -0.7028260827064514,
            -0.7053723931312561,
            -0.5608830451965332,
            -0.5193458199501038,
            -0.4720506966114044,
            -0.48472169041633606,
            -0.4755907952785492,
            -0.4657077193260193,
            -0.5025275349617004,
            -0.5123811364173889,
            -0.6044639945030212,
            -0.6268190145492554,
            -0.6330595016479492,
            -0.6334761381149292,
            -0.6374855041503906,
            -0.6509244441986084,
            -0.5983182787895203,
            -0.5744141936302185,
            -0.5471815466880798,
            -0.550808310508728,
            -0.5435202717781067,
            -0.5435734391212463,
            -0.5899996161460876,
            -0.6289029717445374,
            -0.6780605316162109,
            -0.7113329172134399,
            -0.7292822599411011,
            -0.737561047077179,
            -0.7215537428855896,
            -0.7551364898681641,
            -0.5758218169212341,
            -0.5335327386856079,
            -0.555515468120575,
            -0.5421981811523438,
            -0.5541254878044128,
            -0.5682744383811951,
            -0.5928269028663635,
            -0.6529567241668701,
            -0.6867428421974182,
            -0.680783748626709,
            -0.687702476978302,
            -0.7368427515029907,
            -0.7652571797370911,
            -0.8069736361503601,
            -0.5189619064331055,
            -0.4796108305454254,
            -0.5112001299858093,
            -0.48902347683906555,
            -0.4810558259487152,
            -0.4997853636741638,
            -0.5195178389549255,
            -0.5929424166679382,
            -0.6271759867668152,
            -0.6254067420959473,
            -0.6369637250900269,
            -0.6627220511436462,
            -0.6988496780395508,
            -0.7474381327629089,
            -0.567418098449707,
            -0.5660743117332458,
            -0.5444885492324829,
            -0.5421707630157471,
            -0.5801124572753906,
            -0.5917014479637146,
            -0.6294727921485901,
            -0.6757732033729553,
            -0.7071558237075806,
            -0.7188433408737183,
            -0.7416653633117676,
            -0.7425814867019653,
            -0.805975079536438,
            -0.8317877054214478
        ]
    ],
    "weights": [
        [
            [
                -0.8796983361244202,
                0.2438417673110962,
                0.22772528231143951,
                0.19261932373046875,
                1.094456434249878,
                0.32267192006111145,
                0.009835336357355118,
                0.44059354066848755,
                0.5281801223754883
            ],
            [
                -0.6653032302856445,
                0.26948386430740356,
                0.2793201804161072,
                0.42200031876564026,
                -0.7985222339630127,
                0.23055699467658997,
                0.26778241991996765,
                0.4120331406593323,
                0.4290245771408081
            ],
            [
                0.040467768907547,
                0.07783723622560501,
                0.17754630744457245,
                -0.09378431737422943,
                0.086593858897686,
                -0.022509999573230743,
                0.07561225444078445,
                0.20227931439876556,
                0.17367827892303467
            ],
            [
                0.1527564823627472,
                0.34115833044052124,
                0.18003597855567932,
                0.1384308934211731,
                0.6601906418800354,
                0.034364305436611176,
                -0.28092604875564575,
                -0.5142515897750854,
                0.2065054327249527
            ],
            [
                -0.07496045529842377,
                -0.5631038546562195,
                -0.01896548829972744,
                -0.2262260764837265,
                -0.01370325218886137,
                -0.14451342821121216,
                0.042066607624292374,
                0.026906879618763924,
                0.051666684448719025
            ],
            [
                0.13948747515678406,
                0.030793465673923492,
                -0.5528736114501953,
                0.12655456364154816,
                0.41243091225624084,
                0.22695766389369965,
                0.16979491710662842,
                -0.07097707688808441,
                -0.04794047772884369
            ],
            [
                0.06116028130054474,
                -0.046622321009635925,
                0.06388569623231888,
                -0.8537741899490356,
                0.062197282910346985,
                0.03532295301556587,
                0.08058783411979675,
                -0.007476314902305603,
                -0.10032767057418823
            ],
            [
                0.07177261263132095,
                0.09160280972719193,
                -0.07395510375499725,
                0.010448616929352283,
                -0.26285848021507263,
                0.161244198679924,
                0.09372435510158539,
                0.016264773905277252,
                -0.07451491057872772
            ],
            [
                -0.11222255229949951,
                0.11062994599342346,
                -0.09350022673606873,
                0.12098238617181778,
                0.10812181979417801,
                -0.10442806780338287,
                -0.03975476697087288,
                -0.05852393060922623,
                0.06603645533323288
            ]
        ],
        [
            [
                0.009431897662580013,
                0.902592658996582,
                0.013329206965863705,
                0.0017152921063825488,
                -0.4624343514442444,
                -0.04387396201491356,
                0.024608001112937927,
                0.022509148344397545,
                0.019247032701969147,
                0.2877950668334961,
                0.007164962124079466,
                -0.014849196188151836,
                0.009008554741740227,
                0.006468367762863636,
                0.3733297884464264,
                0.0017150577623397112,
                -0.020793430507183075,
                0.33609244227409363,
                0.007919033989310265,
                -0.0037938859313726425,
                0.001449879608117044,
                -0.0036091955844312906,
                -0.014316292479634285,
                -0.012813088484108448,
                0.0003664907126221806,
                0.3268928527832031,
                -0.07802263647317886,
                -0.019216256216168404,
                -0.012605654075741768,
                -2.441189280943945e-05,
                0.005997432395815849,
                0.004746357910335064,
                -0.023430868983268738,
                -0.0014990329509600997,
                0.006896901410073042,
                -0.010715831071138382,
                -0.005238264799118042,
                -0.005052841268479824,
                0.006594286300241947,
                0.004144251812249422,
                -0.07277913391590118,
                -0.008450930006802082,
                0.3657546937465668,
                -0.015593609772622585,
                -0.011303833685815334,
                0.4348856508731842,
                -0.010132856667041779,
                0.001008753664791584,
                -0.019971398636698723,
                -0.010943050496280193,
                -0.0055820634588599205,
                -0.0246718842536211,
                -0.011884097941219807,
                0.011983688920736313,
                0.4521596431732178,
                0.010542693547904491,
                -0.025049308314919472,
                -0.004768092185258865,
                0.009756387211382389,
                0.0208441112190485,
                -1.0059055089950562,
                -0.015364004299044609,
                0.005048906896263361,
                0.005840449593961239,
                -0.03692233934998512,
                -0.018752019852399826,
                -0.03172380104660988,
                -0.3486688733100891,
                -0.0023637099657207727,
                0.9087085723876953,
                -0.013648655265569687,
                0.03382359445095062,
                -0.1633259654045105,
                -0.022931218147277832,
                0.01136387325823307,
                -0.013457371853291988,
                -0.0182676762342453,
                -0.0013931025750935078,
                0.0010387076763436198,
                -9.406640310771763e-05,
                0.008517655543982983,
                -0.0073731038719415665,
                -0.40458446741104126,
                0.026001878082752228,
                -0.015371744520962238,
                0.5613037347793579,
                -0.05328230559825897,
                0.005122954025864601,
                -0.6584945917129517,
                0.045336030423641205,
                0.009104067459702492,
                -0.8299010396003723,
                -0.01850822940468788,
                -0.005993482191115618,
                -0.32586830854415894,
                0.7024045586585999,
                -0.01734447292983532,
                -0.008482532575726509,
                0.0379440002143383,
                -0.002075247233733535,
                -0.28684261441230774,
                -0.03109433501958847,
                0.03016090765595436,
                0.022227641195058823,
                -0.0024729850701987743,
                0.598202109336853,
                0.024332890287041664,
                -0.010716172866523266,
                0.943851888179779,
                0.0003886338963638991,
                -0.01344103179872036,
                0.016543541103601456,
                -0.00583335105329752,
                -0.004185103811323643,
                -0.013884480111300945,
                -0.014893284067511559,
                -0.8039910197257996,
                0.012223150581121445,
                0.023591330274939537,
                0.017634961754083633,
                -0.005038711708039045,
                -0.4954162538051605,
                0.0025550713762640953,
                -0.10511906445026398,
                0.008386924862861633,
                0.034336213022470474,
                0.10389550030231476,
                -0.5838112235069275,
                -0.007722458336502314,
                0.002890135394409299,
                -0.18086281418800354,
                0.040474336594343185,
                0.01986915059387684,
                -0.0019034837605431676,
                -0.001137437648139894,
                -0.009022644720971584,
                -0.006082635838538408,
                -0.009115980938076973,
                0.0005586061161011457,
                0.010641575790941715,
                -0.015847306698560715,
                0.01203367579728365,
                -0.1044672280550003,
                -0.007174498401582241,
                0.04289146885275841,
                0.007402936927974224,
                -0.009742354042828083,
                -0.010117262601852417,
                0.3420034348964691,
                0.004733255133032799
            ],
            [
                0.0008540713461115956,
                0.703820526599884,
                0.023031247779726982,
                0.006203258875757456,
                -0.6893571615219116,
                -0.04387127235531807,
                0.01523185521364212,
                0.020779645070433617,
                -0.003334833774715662,
                0.22943134605884552,
                -0.005420778878033161,
                -0.04415526241064072,
                0.035824429243803024,
                -0.01446596160531044,
                0.5144627690315247,
                0.011926862411201,
                -0.0418606773018837,
                -0.394293874502182,
                0.010093477554619312,
                -0.01849079690873623,
                0.005487845744937658,
                -0.010098675265908241,
                0.09927262365818024,
                -0.021478967741131783,
                0.022705337032675743,
                0.5596287846565247,
                -0.6485127806663513,
                -0.013274931348860264,
                0.0030385295394808054,
                0.0014072618214413524,
                -0.012409483082592487,
                0.005067872349172831,
                -0.03283962979912758,
                0.0033604337368160486,
                0.015604078769683838,
                -0.013928749598562717,
                -0.011018955148756504,
                -0.025901488959789276,
                0.006561911199241877,
                0.0068714250810444355,
                -0.24620243906974792,
                -0.024671148508787155,
                0.6247192025184631,
                -0.015061584301292896,
                -0.003016295377165079,
                0.6298691630363464,
                -0.016483835875988007,
                0.019664475694298744,
                0.009618663229048252,
                0.009849525056779385,
                0.013986942358314991,
                -0.04046089947223663,
                -0.001885101431980729,
                0.0041124350391328335,
                0.4300636053085327,
                0.03845365345478058,
                -0.04305747523903847,
                0.025180097669363022,
                -0.007169513497501612,
                -0.00523419538512826,
                -0.13733023405075073,
                -0.03646855801343918,
                -0.002737784758210182,
                -0.004108333494514227,
                -0.00934796966612339,
                -0.03716270998120308,
                -0.004744520876556635,
                -0.24354249238967896,
                0.006546870805323124,
                0.4106637239456177,
                -0.023674489930272102,
                0.05523579195141792,
                0.6582543253898621,
                -0.013259055092930794,
                -0.008595599792897701,
                -0.010209217667579651,
                0.004587461706250906,
                0.02413756400346756,
                -0.010455511510372162,
                0.0011870753951370716,
                -0.01835070736706257,
                -0.004062446299940348,
                0.08944854140281677,
                0.05304032191634178,
                0.002867609029635787,
                0.2190249264240265,
                0.4302213191986084,
                0.010019452311098576,
                -0.3253577649593353,
                0.05190466716885567,
                -0.01605055294930935,
                -0.5759440660476685,
                -0.005332816392183304,
                -0.005386680364608765,
                -0.07234286516904831,
                0.5193458795547485,
                -0.03411352261900902,
                -0.019201286137104034,
                0.007916698232293129,
                -0.019032921642065048,
                -0.6287147402763367,
                -0.04654957726597786,
                0.04744597151875496,
                0.009384526871144772,
                0.01395771186798811,
                0.4490557909011841,
                0.015093180350959301,
                -0.031296197324991226,
                0.5019327998161316,
                0.016302859410643578,
                0.02116723358631134,
                0.03341366723179817,
                -0.002832115860655904,
                -0.021498598158359528,
                -0.01377528440207243,
                0.022664083167910576,
                -0.41768625378608704,
                0.02791440300643444,
                0.007726151030510664,
                0.01212867721915245,
                0.01013143453747034,
                -0.31647995114326477,
                0.01600542664527893,
                -0.5388230085372925,
                -0.00959026999771595,
                0.05953304469585419,
                -1.276526689529419,
                -0.5212762355804443,
                -0.031034642830491066,
                0.016811739653348923,
                0.6364936828613281,
                0.02505205199122429,
                0.00634577963501215,
                0.00873340293765068,
                -0.017536018043756485,
                0.010630274191498756,
                0.0035590084735304117,
                -0.007192913442850113,
                0.021082164719700813,
                0.004992164205759764,
                -0.017983688041567802,
                0.02197391539812088,
                -0.32322877645492554,
                -0.02324848808348179,
                0.02579755336046219,
                -0.017946619540452957,
                -0.02095220237970352,
                -0.029756639152765274,
                0.679999828338623,
                -0.006377251818776131
            ],
            [
                0.006275538355112076,
                0.14705616235733032,
                0.009590030647814274,
                0.00249282643198967,
                -0.12348869442939758,
                -0.04430992901325226,
                0.02619771659374237,
                0.021601878106594086,
                0.013762050308287144,
                0.21964257955551147,
                0.0047226836904883385,
                -0.013611799106001854,
                0.010845304466784,
                0.007020913064479828,
                0.3535081446170807,
                0.002667322289198637,
                -0.013332149013876915,
                -0.14868557453155518,
                0.002190218772739172,
                -0.0013665936421602964,
                0.0005455344798974693,
                -0.005543677136301994,
                -0.035524651408195496,
                -0.011158102191984653,
                0.0001317416608799249,
                0.04221980646252632,
                -0.19414052367210388,
                -0.018603520467877388,
                -0.011061528697609901,
                7.042206561891362e-06,
                0.0034129731357097626,
                0.0021473171655088663,
                -0.02533794566988945,
                -0.0021664395462721586,
                0.005748025141656399,
                -0.008212191052734852,
                -0.01767605170607567,
                -0.005844947881996632,
                0.0005917620728723705,
                0.004046235233545303,
                0.0516747422516346,
                -0.009748256765305996,
                0.10379583388566971,
                -0.013075783848762512,
                -0.00985073670744896,
                0.1606200933456421,
                -0.011687896214425564,
                0.0047769611701369286,
                -0.018035873770713806,
                -0.009774208068847656,
                -0.003994537517428398,
                -0.02913122996687889,
                -0.010742997750639915,
                0.00966130942106247,
                0.005599707365036011,
                0.01293469499796629,
                -0.02432987466454506,
                -0.003912358079105616,
                0.009197342209517956,
                0.014682031236588955,
                0.06050052121281624,
                -0.012436458840966225,
                0.0017410391010344028,
                0.0036069767083972692,
                -0.03297988325357437,
                -0.01555885560810566,
                -0.031810540705919266,
                -0.399579793214798,
                -0.001214330201037228,
                0.02197260782122612,
                -0.010737261734902859,
                0.03312349319458008,
                0.01565643586218357,
                -0.01943145878612995,
                0.00903755147010088,
                0.005027086939662695,
                -0.013137883506715298,
                0.00028933185967616737,
                0.00505226431414485,
                -0.009562373161315918,
                0.006689397618174553,
                -0.005974321626126766,
                0.054328758269548416,
                0.02066151425242424,
                -0.011075148358941078,
                0.17572204768657684,
                0.11528559029102325,
                0.005273090209811926,
                -0.0386827252805233,
                0.047866664826869965,
                0.012527662329375744,
                0.06308139115571976,
                -0.016129417344927788,
                -0.006063324399292469,
                -0.15765050053596497,
                0.10529674589633942,
                -0.018501995131373405,
                -0.012904401868581772,
                0.0342034287750721,
                -0.0035530165769159794,
                -0.10226030647754669,
                -0.03233359009027481,
                0.030474308878183365,
                0.01972203701734543,
                -0.005407701712101698,
                -0.23671583831310272,
                0.020935941487550735,
                -0.013349045068025589,
                -0.047761064022779465,
                0.02018946036696434,
                -0.009556397795677185,
                0.014086569659411907,
                -0.0073224324733018875,
                -0.0070929876528680325,
                -0.013474222272634506,
                -0.014030023477971554,
                -0.04930802062153816,
                0.015378479845821857,
                0.028233038261532784,
                0.01289383601397276,
                0.0006534556159749627,
                0.1544913351535797,
                0.0071023572236299515,
                -0.1195933073759079,
                0.007802493404597044,
                0.03546690195798874,
                -0.2290901243686676,
                -0.09138530492782593,
                -0.010205326601862907,
                0.003843983169645071,
                -0.02918148972094059,
                0.03811982274055481,
                -8.921988774091005e-05,
                0.024155521765351295,
                -0.005268820095807314,
                -0.007172483950853348,
                -0.010641615837812424,
                -0.004300955217331648,
                0.0011622911551967263,
                0.011575797572731972,
                -0.014161423780024052,
                0.01144214253872633,
                -0.03963833674788475,
                -0.010654713958501816,
                0.04430796205997467,
                0.00725430017337203,
                -0.012086639180779457,
                -0.013089925050735474,
                0.05894172564148903,
                0.0030493345111608505
            ],
            [
                0.005255622323602438,
                -3.80647349357605,
                0.020938951522111893,
                0.0004607946611940861,
                0.8353787064552307,
                -0.044335704296827316,
                0.020684750750660896,
                0.021245045587420464,
                0.029493380337953568,
                0.5952305793762207,
                0.021208642050623894,
                -0.0073124999180436134,
                0.0011152212973684072,
                0.01749039813876152,
                -1.516136646270752,
                -0.004387767054140568,
                0.22847186028957367,
                0.2078351080417633,
                0.0014696202706545591,
                0.005265411455184221,
                0.005170438904315233,
                -0.02460685931146145,
                -0.03147142753005028,
                -0.03275509178638458,
                -0.0059680030681192875,
                -0.34314146637916565,
                0.9391064643859863,
                -0.026552677154541016,
                -0.014341099187731743,
                0.00464013684540987,
                0.0064493268728256226,
                0.003724758280441165,
                -0.02687014825642109,
                -0.002313070697709918,
                8.692660048836842e-05,
                -0.03493412956595421,
                -0.0183351319283247,
                -0.006315624341368675,
                -0.005492082331329584,
                0.003672341350466013,
                -0.25135770440101624,
                0.007206186186522245,
                -0.7177345156669617,
                -0.019044624641537666,
                -0.009328044950962067,
                -0.4085855782032013,
                -0.009459909051656723,
                0.00852511078119278,
                -0.023614687845110893,
                -0.020470762625336647,
                0.005483584012836218,
                -0.016075126826763153,
                -0.027116021141409874,
                0.0138939144089818,
                -0.3592730462551117,
                0.004524614661931992,
                -0.019623462110757828,
                -0.004724955651909113,
                -0.0028763418085873127,
                0.03284551203250885,
                -0.023415736854076385,
                -0.01620277389883995,
                0.00854508951306343,
                -0.007145253475755453,
                -0.039379727095365524,
                -0.013109580613672733,
                -0.029606666415929794,
                1.8248860836029053,
                0.015720561146736145,
                -0.616953432559967,
                -0.029375145211815834,
                0.03883872553706169,
                -0.8970866203308105,
                -0.015160762704908848,
                0.015916593372821808,
                -0.010558603331446648,
                -0.032772839069366455,
                -0.008381242863833904,
                0.0003183580411132425,
                -0.0011678203009068966,
                0.010361315682530403,
                -0.007775077596306801,
                -0.14482679963111877,
                0.029119456186890602,
                -0.028210056945681572,
                1.9641939401626587,
                -0.05080718919634819,
                0.011832322925329208,
                0.25438037514686584,
                0.021192720159888268,
                0.020508307963609695,
                1.0123662948608398,
                -0.010870256461203098,
                0.011073948815464973,
                -0.678727388381958,
                -0.5615918636322021,
                -0.012968341819941998,
                -0.021679069846868515,
                0.04493670538067818,
                0.00024379781098105013,
                0.34223756194114685,
                -0.02212398871779442,
                0.01783238723874092,
                0.007337117101997137,
                -0.014921275898814201,
                -0.5446903109550476,
                0.022534852847456932,
                -0.012701613828539848,
                -0.7853168249130249,
                0.03899839147925377,
                -0.01636272296309471,
                0.010945071466267109,
                -0.00035288117942400277,
                0.0013308348134160042,
                -0.02669379487633705,
                -0.018188519403338432,
                0.586192786693573,
                0.0047444128431379795,
                0.03149145469069481,
                0.004636543337255716,
                -0.016397560015320778,
                0.7810203433036804,
                0.010813281871378422,
                1.165717601776123,
                0.010607963427901268,
                0.03257056325674057,
                0.8798786401748657,
                0.4499344527721405,
                0.00045799880172125995,
                0.006344761233776808,
                -1.0597151517868042,
                0.02959635481238365,
                -0.006138944532722235,
                0.011219484731554985,
                0.018309103325009346,
                -0.012288860976696014,
                -0.00926776509732008,
                -0.027490457519888878,
                0.001082015223801136,
                0.0005509374896064401,
                -0.03730945289134979,
                -0.00032172774081118405,
                0.33857741951942444,
                0.003400058252736926,
                0.04935484379529953,
                0.016392765566706657,
                -0.004454223904758692,
                0.00762577261775732,
                -0.8927702903747559,
                0.008020575158298016
            ],
            [
                0.011207742616534233,
                0.7915856838226318,
                0.010246756486594677,
                -0.0025755884125828743,
                -0.0930456593632698,
                -0.04694753512740135,
                0.025506697595119476,
                0.025687288492918015,
                0.017108451575040817,
                0.4509011507034302,
                0.0064551676623523235,
                -0.013597079552710056,
                0.010102614760398865,
                0.005807947367429733,
                0.18998290598392487,
                -0.00039487023605033755,
                -0.02274334616959095,
                -0.22166308760643005,
                0.005340533796697855,
                -0.0024704784154891968,
                0.004797297064214945,
                -0.006085053086280823,
                0.0028767946641892195,
                -0.010503551922738552,
                0.0018940569134429097,
                0.39883777499198914,
                -0.8554093837738037,
                -0.020965076982975006,
                -0.012714059092104435,
                -0.00030613693525083363,
                0.00523487338796258,
                0.00755722401663661,
                -0.02762170322239399,
                0.0016669195611029863,
                0.005845228675752878,
                -0.009336074814200401,
                -0.017559882253408432,
                -0.005320168565958738,
                0.0025929827243089676,
                0.0027155836578458548,
                0.000425138627178967,
                -0.009095710702240467,
                0.3106403946876526,
                -0.01607014797627926,
                -0.012786781415343285,
                0.24574483931064606,
                -0.012854709289968014,
                0.0037608689162880182,
                -0.019267741590738297,
                -0.011853300034999847,
                -0.006437479052692652,
                -0.02445114403963089,
                -0.012642918154597282,
                0.007001213263720274,
                -0.0012730936286970973,
                0.013508857227861881,
                -0.026358356699347496,
                -0.004831313621252775,
                0.010085144080221653,
                0.018683768808841705,
                0.1884917914867401,
                -0.013404511846601963,
                0.005016717594116926,
                0.0034890256356447935,
                -0.03377387300133705,
                -0.018884630873799324,
                -0.03136858344078064,
                -0.3067173957824707,
                -2.673245035111904e-06,
                0.09990665316581726,
                -0.012030981481075287,
                0.034855522215366364,
                0.10035103559494019,
                -0.01796369068324566,
                0.01074445154517889,
                0.00019251974299550056,
                -0.015583579428493977,
                0.0006719875964336097,
                0.0022317743860185146,
                -0.0038041656371206045,
                0.008651260286569595,
                -0.004325824324041605,
                0.2152307778596878,
                0.023927031084895134,
                -0.01351054385304451,
                0.00892646238207817,
                0.30014529824256897,
                0.0038659994024783373,
                -0.135223850607872,
                0.045229069888591766,
                0.009120936505496502,
                -0.029971128329634666,
                -0.017756935209035873,
                -0.004164720885455608,
                -0.19505615532398224,
                0.09001585096120834,
                -0.01621321029961109,
                -0.014669003896415234,
                0.03756009042263031,
                -0.0022956477478146553,
                -0.3364764153957367,
                -0.034048888832330704,
                0.028806736692786217,
                0.0171209666877985,
                -0.0035606687888503075,
                0.08363363146781921,
                0.026133304461836815,
                -0.009156014770269394,
                -0.2475190907716751,
                0.02194829471409321,
                -0.011247643269598484,
                0.015026075765490532,
                -0.008347800001502037,
                -0.006321397610008717,
                -0.014161594212055206,
                -0.012856386601924896,
                0.012854031287133694,
                0.016049090772867203,
                0.024177338927984238,
                0.016101611778140068,
                -0.003164851339533925,
                0.22317591309547424,
                0.0015558290760964155,
                0.02464071661233902,
                0.006875119172036648,
                0.03459780290722847,
                -0.1875794380903244,
                -0.3736555278301239,
                -0.007927157916128635,
                0.0019454917637631297,
                -0.11970406770706177,
                0.04069534316658974,
                -0.0005487801972776651,
                0.010866288095712662,
                -0.002815132960677147,
                -0.009603729471564293,
                -0.007741600275039673,
                -0.00702369399368763,
                0.00042949398630298674,
                0.011217503808438778,
                -0.016565021127462387,
                0.012488561682403088,
                0.1189919263124466,
                -0.010863234288990498,
                0.04181421920657158,
                0.006712660659104586,
                -0.011795864440500736,
                -0.010988964699208736,
                0.01907898671925068,
                0.005240315105766058
            ],
            [
                -0.004559939261525869,
                -0.4359414875507355,
                -0.001401129411533475,
                0.014624225907027721,
                0.13765810430049896,
                -0.036774810403585434,
                0.039071422070264816,
                0.01362378429621458,
                0.015667935833334923,
                -1.1493406295776367,
                0.008501195348799229,
                -0.006520158611238003,
                -0.0033766368869692087,
                0.013209288008511066,
                0.6595369577407837,
                0.004954107105731964,
                -0.053410403430461884,
                0.08910823613405228,
                -0.00494931498542428,
                0.0025414088740944862,
                -0.007353734690696001,
                0.012394771911203861,
                -0.1616300344467163,
                -0.008173557929694653,
                -0.015789370983839035,
                -0.29476436972618103,
                0.03158130869269371,
                -0.013701580464839935,
                -0.014951387420296669,
                -0.012537948787212372,
                0.01254954282194376,
                -0.010466063395142555,
                -0.015183678828179836,
                -0.011406945995986462,
                -0.008954126387834549,
                0.0030621259938925505,
                0.009038615971803665,
                0.01221479382365942,
                0.0025302127469331026,
                0.0008936563972383738,
                0.14046292006969452,
                -0.012007538229227066,
                -0.0006001052679494023,
                -0.008954579941928387,
                -0.0047620562836527824,
                -0.23014773428440094,
                0.000253872771281749,
                -0.005230460315942764,
                -0.031998760998249054,
                -0.01609101891517639,
                -0.009155496023595333,
                -0.03630637750029564,
                -0.010794654488563538,
                0.018774768337607384,
                -0.35317331552505493,
                0.0020623267628252506,
                -0.008566529490053654,
                -0.009907033294439316,
                0.02040409855544567,
                0.011808372102677822,
                1.2619452476501465,
                0.008621851913630962,
                0.013146384619176388,
                0.022294577211141586,
                -0.04886602982878685,
                -0.0004296217521186918,
                -0.04052923619747162,
                -0.8408559560775757,
                -0.023332588374614716,
                -1.1431503295898438,
                -0.000896924699191004,
                0.022571327164769173,
                0.19502288103103638,
                -0.0323951318860054,
                0.0193655826151371,
                -0.02059592679142952,
                -0.011089484207332134,
                -0.012183064594864845,
                0.020424703136086464,
                -0.007062320597469807,
                0.008221792988479137,
                -0.01260977890342474,
                -0.12693917751312256,
                0.011006323620676994,
                -0.017162442207336426,
                -1.1858892440795898,
                -0.3425513505935669,
                -0.0012413326185196638,
                0.5558294057846069,
                0.04692474380135536,
                0.023245828226208687,
                0.1851639747619629,
                -0.01678130403161049,
                -0.010031192563474178,
                1.2706365585327148,
                -0.39475804567337036,
                -0.019654670730233192,
                0.003282974474132061,
                0.04070824757218361,
                0.006527779158204794,
                0.26132550835609436,
                -0.021097898483276367,
                0.028225455433130264,
                0.04205319285392761,
                -0.01479592639952898,
                -0.05860835313796997,
                0.013727294281125069,
                -0.0213257297873497,
                -0.5952898859977722,
                0.0015813326463103294,
                -0.020411400124430656,
                0.010764828883111477,
                -0.01630634069442749,
                0.0013057260075584054,
                -0.003348632249981165,
                -0.033951517194509506,
                0.532322108745575,
                0.007349735125899315,
                0.04122224077582359,
                0.027440670877695084,
                0.00016451925330329686,
                -0.15182065963745117,
                0.015567289665341377,
                -0.3177076578140259,
                0.019181890413165092,
                0.015928450971841812,
                -0.5413998365402222,
                0.20828445255756378,
                -0.005035738460719585,
                -0.006311273202300072,
                0.40626129508018494,
                0.042416688054800034,
                0.02016008459031582,
                0.0011421592207625508,
                -0.007931453175842762,
                -0.01345861330628395,
                -0.018963873386383057,
                0.000923246203456074,
                -0.0152293024584651,
                0.022031892091035843,
                -0.016279490664601326,
                0.013455360196530819,
                -0.17484015226364136,
                9.565714572090656e-05,
                0.05765852704644203,
                0.017656812444329262,
                -0.011032876558601856,
                -0.020878233015537262,
                0.3014671802520752,
                0.009722852148115635
            ],
            [
                0.014250528067350388,
                -5.771903038024902,
                0.01476856879889965,
                -0.005511466879397631,
                0.23535826802253723,
                -0.04900084063410759,
                0.016244830563664436,
                0.027663661167025566,
                0.00907912664115429,
                0.08476852625608444,
                0.004801224917173386,
                -0.024614520370960236,
                0.022351501509547234,
                -0.0005368119454942644,
                -0.4253203868865967,
                0.0010827513178810477,
                -0.0073369890451431274,
                0.13148380815982819,
                0.016061877831816673,
                -0.011270890943706036,
                0.007516589015722275,
                -0.009968711994588375,
                0.06489579379558563,
                -0.013987474143505096,
                0.012932869605720043,
                -0.3318444490432739,
                0.4553452730178833,
                -0.01836671680212021,
                -0.005412179511040449,
                -0.0043006958439946175,
                -0.0073923529125750065,
                0.008806473575532436,
                -0.02815535105764866,
                -0.0006933592958375812,
                0.015489023178815842,
                -0.01584499515593052,
                -0.01891983486711979,
                -0.015991995111107826,
                0.003772107884287834,
                0.0076767075806856155,
                -0.011537169106304646,
                -0.011788740754127502,
                -0.43667733669281006,
                -0.01696610450744629,
                -0.013682916760444641,
                -0.32865482568740845,
                -0.016802649945020676,
                0.011720209382474422,
                -0.011718192137777805,
                0.0008470274042338133,
                -0.0005958504043519497,
                -0.02474224753677845,
                -0.008294270373880863,
                0.004537270404398441,
                -0.2692068815231323,
                0.02075282111763954,
                -0.03723937273025513,
                0.0030320666264742613,
                0.00559440441429615,
                0.011556604877114296,
                0.20778122544288635,
                -0.025988737121224403,
                -0.0009626398095861077,
                -0.006238739937543869,
                -0.02347385324537754,
                -0.027372874319553375,
                -0.021371062844991684,
                0.9768353700637817,
                0.006505218800157309,
                -0.37141290307044983,
                -0.017705975100398064,
                0.04431268945336342,
                -0.24967966973781586,
                -0.010886602103710175,
                0.0020088311284780502,
                -0.0001029732811730355,
                -0.009714542888104916,
                0.012398399412631989,
                -0.01051858626306057,
                -0.012006653472781181,
                0.0008759416523389518,
                0.0015058103017508984,
                -0.43171530961990356,
                0.024060027673840523,
                -0.0035023584496229887,
                0.12346874177455902,
                -0.047413475811481476,
                0.012125786393880844,
                0.3916471302509308,
                0.05144723132252693,
                0.0007630278123542666,
                0.6852118372917175,
                -0.015537230297923088,
                -0.00245620752684772,
                -0.01143576018512249,
                -0.11566799134016037,
                -0.015011905692517757,
                -0.0184850562363863,
                0.02614646777510643,
                -0.014950853772461414,
                0.36029356718063354,
                -0.045916397124528885,
                0.036562904715538025,
                0.0070816390216350555,
                0.009232612326741219,
                -0.676975667476654,
                0.02891511842608452,
                -0.010133602656424046,
                -0.3778778612613678,
                0.015643050894141197,
                -0.0027274026069790125,
                0.022995609790086746,
                0.0007705416646786034,
                -0.013026513159275055,
                -0.022385522723197937,
                -0.002421676879748702,
                0.3154020607471466,
                0.02294555865228176,
                0.01214126218110323,
                0.008710723370313644,
                -0.0015831689815968275,
                -0.5534204244613647,
                0.005058991257101297,
                0.15748126804828644,
                -0.002463895594701171,
                0.04546983912587166,
                0.3597167134284973,
                0.31373652815818787,
                -0.015314950607717037,
                0.015430961735546589,
                -0.09965693205595016,
                0.03348926082253456,
                0.004236634820699692,
                0.019104061648249626,
                -0.002755851252004504,
                0.0014834897592663765,
                0.001638863468542695,
                -0.006221596617251635,
                0.011337483301758766,
                0.005696138367056847,
                -0.012040001340210438,
                0.014211525209248066,
                0.09207352995872498,
                -0.018924979493021965,
                0.02978586219251156,
                0.0007637581438757479,
                -0.016797147691249847,
                -0.015153560787439346,
                -0.37914374470710754,
                -0.001696486258879304
            ],
            [
                0.003213618416339159,
                1.3871049880981445,
                0.017230050638318062,
                0.008411913178861141,
                0.7346878051757812,
                -0.03906313702464104,
                0.027915941551327705,
                0.01749429479241371,
                0.012982355430722237,
                -1.0411708354949951,
                -0.0017786948010325432,
                -0.01444709487259388,
                0.010904243215918541,
                0.004643360618501902,
                -1.7634236812591553,
                0.008902903646230698,
                -0.0362597294151783,
                0.734441339969635,
                -0.0026580437552183867,
                0.0018994671991094947,
                -0.0038707212079316378,
                -0.003596184542402625,
                -0.00907741766422987,
                -0.013501489534974098,
                0.0013678475515916944,
                -0.9785916209220886,
                0.5529364943504333,
                -0.014773199334740639,
                -0.014706552028656006,
                0.003692822065204382,
                0.008153198286890984,
                0.003509894944727421,
                -0.02194245345890522,
                0.0006292951875366271,
                0.00647145789116621,
                -0.0087208217009902,
                -0.014072710648179054,
                -0.009600276127457619,
                0.006685531698167324,
                0.0012797615490853786,
                -0.06247350573539734,
                -0.016046438366174698,
                -0.9402772784233093,
                -0.010887349024415016,
                -0.009094315581023693,
                -0.7743372917175293,
                -0.006771404761821032,
                0.014704879373311996,
                -0.01114033255726099,
                -0.012321429327130318,
                -0.0010828503873199224,
                -0.03219808638095856,
                -0.008842559531331062,
                0.014498496428132057,
                -1.012174367904663,
                0.018473811447620392,
                -0.02365230955183506,
                -0.0016985666006803513,
                0.0009508227230980992,
                0.012961132451891899,
                1.233269214630127,
                -0.014992096461355686,
                0.0013687422033399343,
                0.00630987761542201,
                -0.024811584502458572,
                -0.01912306435406208,
                -0.030732423067092896,
                2.3283915519714355,
                -0.0038455724716186523,
                -1.059433102607727,
                -0.014831981621682644,
                0.04505040869116783,
                -0.7538020610809326,
                -0.026374703273177147,
                0.009183592163026333,
                0.0011588702909648418,
                -0.006889664568006992,
                -0.0010496261529624462,
                0.00766801368445158,
                -0.006617533974349499,
                0.005745421163737774,
                -0.014031742699444294,
                0.8423349261283875,
                0.03285963460803032,
                -0.012003378011286259,
                0.6114896535873413,
                -0.8602538704872131,
                0.0024616674054414034,
                1.0897881984710693,
                0.048029884696006775,
                0.006927615497261286,
                1.0240623950958252,
                -0.009434539824724197,
                -0.004168802872300148,
                1.2136248350143433,
                -0.9138084053993225,
                -0.029942618682980537,
                -0.007536260411143303,
                0.03368031233549118,
                0.0006826971075497568,
                0.6696356534957886,
                -0.03999019041657448,
                0.030218226835131645,
                0.028840651735663414,
                -0.009069169871509075,
                -1.1192179918289185,
                0.016987279057502747,
                -0.016347398981451988,
                -0.9085754752159119,
                0.013873888179659843,
                -0.0034150355495512486,
                0.015017655678093433,
                -0.005229989066720009,
                -0.012315529398620129,
                -0.002541257767006755,
                -0.005402074195444584,
                1.0655012130737305,
                0.028576284646987915,
                0.02928807958960533,
                0.014690769836306572,
                0.007509326562285423,
                0.7259835600852966,
                0.008966533467173576,
                0.788460373878479,
                -0.0023096404038369656,
                0.03920098766684532,
                0.608796238899231,
                0.9525469541549683,
                -0.011242370121181011,
                0.0027942683082073927,
                -0.08713722229003906,
                0.039556439965963364,
                0.008041475899517536,
                0.011442904360592365,
                -0.011785788461565971,
                -0.009878712706267834,
                -0.012280086055397987,
                0.0032695240806788206,
                0.0029331822879612446,
                0.010671652853488922,
                -0.013762492686510086,
                0.01386304385960102,
                0.3748512864112854,
                -0.017401069402694702,
                0.04559501260519028,
                0.0018380077090114355,
                -0.022904368117451668,
                -0.02152378112077713,
                -0.8293965458869934,
                0.004520168527960777
            ],
            [
                0.017101770266890526,
                -0.9282225966453552,
                0.006960592232644558,
                -0.009784882888197899,
                0.05576303228735924,
                -0.053632818162441254,
                0.020120490342378616,
                0.03178923949599266,
                0.01569187454879284,
                -0.8438783884048462,
                0.011707788333296776,
                -0.02001592330634594,
                0.015964198857545853,
                0.00024905477766878903,
                0.6375668048858643,
                -0.005686999298632145,
                -0.0467698909342289,
                0.2734522223472595,
                0.0167374350130558,
                -0.013317172415554523,
                0.012171437963843346,
                -0.003187426133081317,
                0.03970665484666824,
                -0.009676339104771614,
                0.008644314482808113,
                -0.46574538946151733,
                0.3452884554862976,
                -0.023664912208914757,
                -0.006632940843701363,
                -0.0042450097389519215,
                -0.0025975184980779886,
                0.011135566979646683,
                -0.03287729248404503,
                0.0010091009316965938,
                0.007823565974831581,
                -0.008935783058404922,
                -0.0102391317486763,
                -0.004208767786622047,
                0.003842633916065097,
                0.0037137570325285196,
                -0.02218499779701233,
                -0.007433812599629164,
                -0.12515896558761597,
                -0.021532267332077026,
                -0.015001868829131126,
                -0.20530101656913757,
                -0.01801825501024723,
                -0.006641883868724108,
                -0.02003989741206169,
                -0.002575230784714222,
                -0.007979567162692547,
                -0.020396554842591286,
                -0.010548633523285389,
                0.005884762853384018,
                -0.4278790354728699,
                0.01519031636416912,
                -0.033359281718730927,
                -0.001233038492500782,
                0.016229499131441116,
                0.019906368106603622,
                0.84989994764328,
                -0.017351338639855385,
                0.006916437763720751,
                -0.00022213993361219764,
                -0.03785097599029541,
                -0.02304275520145893,
                -0.026130232959985733,
                -0.4481010138988495,
                -0.00156332494225353,
                -0.5316677093505859,
                -0.011998760513961315,
                0.028601760044693947,
                -0.10521707683801651,
                -0.012251254171133041,
                0.005673752631992102,
                -0.01582956500351429,
                -0.01953194849193096,
                0.00852237083017826,
                -0.0059766317717731,
                0.001183045911602676,
                0.005416060332208872,
                0.005147312767803669,
                -0.6072171926498413,
                0.02491171471774578,
                -0.009402483701705933,
                -1.6711268424987793,
                -0.36346712708473206,
                0.006598257459700108,
                0.5795148015022278,
                0.047273531556129456,
                0.0039294324815273285,
                0.23068641126155853,
                -0.02435305528342724,
                -0.007386501412838697,
                1.0905510187149048,
                -0.1089644804596901,
                -0.005880029872059822,
                -0.01946641504764557,
                0.034232303500175476,
                -0.010227001272141933,
                0.21826966106891632,
                -0.030324891209602356,
                0.034950561821460724,
                0.007282573264092207,
                0.008221400901675224,
                -0.5194076895713806,
                0.03180211782455444,
                -0.0065482803620398045,
                -0.3549552261829376,
                0.007540063001215458,
                -0.01107833068817854,
                0.020921101793646812,
                -0.011714459396898746,
                -0.004405051935464144,
                -0.024040011689066887,
                -0.012751315720379353,
                0.2952778935432434,
                0.006006896495819092,
                0.012975407764315605,
                0.02052728831768036,
                -0.01060870848596096,
                -0.659492015838623,
                -0.005190135911107063,
                -0.15145042538642883,
                0.012409781105816364,
                0.03471653163433075,
                0.16264335811138153,
                0.31310421228408813,
                -0.010665281675755978,
                0.003377032931894064,
                -0.006657698191702366,
                0.03851918876171112,
                0.012256459333002567,
                -0.008495173417031765,
                0.0008994632516987622,
                -0.0026805668603628874,
                0.0007390590035356581,
                -0.013035362586379051,
                0.002179473638534546,
                0.011657729744911194,
                -0.0177692249417305,
                0.01477651484310627,
                -0.09038639813661575,
                -0.006773571018129587,
                0.03267430141568184,
                0.0028805453330278397,
                -0.001120126573368907,
                -0.005941093433648348,
                -0.05921133607625961,
                0.0019324369495734572
            ]
        ],
        [
            [
                0.007108169607818127,
                0.01409908290952444,
                -0.03210176154971123,
                0.007508697919547558,
                0.0055868965573608875,
                0.008411193266510963,
                0.008697008714079857,
                -0.008043724112212658,
                -0.018912488594651222,
                0.0007500149658881128,
                -0.013762733899056911,
                -0.005211589392274618,
                0.016606425866484642,
                -0.0021698237396776676,
                0.0031463936902582645,
                0.006714265327900648,
                -0.011352813802659512,
                0.013397871516644955,
                -0.006532337982207537,
                0.0009554143180139363,
                0.00656456034630537,
                -0.007303345017135143,
                -0.0009457333944737911,
                0.00661920290440321,
                0.007898090407252312,
                0.01901353895664215,
                0.024814387783408165,
                0.011404327116906643,
                0.0013672731583938003,
                -0.003920569084584713,
                -0.005500566679984331,
                -0.009730781428515911,
                -0.020270515233278275,
                -0.009832533076405525,
                0.0039633940905332565,
                0.004067992325872183,
                -0.0018253677990287542,
                -0.017673233523964882,
                -0.024429703131318092,
                -0.0018490221118554473,
                0.0034889928065240383,
                0.004880843684077263,
                0.00015996780712157488,
                -0.005006803665310144,
                -0.01344333402812481,
                0.006253949366509914,
                0.0009215032332576811,
                0.011552176438272,
                0.013934366405010223,
                0.005626094527542591,
                0.003934874664992094,
                -0.004315788857638836,
                -0.0061396583914756775,
                -0.0009846986504271626,
                -0.01719847321510315,
                -0.013909202069044113,
                0.015989944338798523,
                0.007285807281732559,
                0.005814775358885527,
                0.005364906974136829,
                0.003296263050287962,
                -0.010508887469768524,
                0.0019669951871037483,
                -0.009717665612697601,
                -0.010806858539581299,
                0.000734474160708487,
                -0.002972695743665099,
                -0.0006369805196300149,
                -0.006785310804843903,
                0.005910099484026432,
                0.005818997975438833,
                -0.007956762798130512,
                -0.015254227444529533,
                -0.005448358599096537,
                -0.00957405287772417,
                -0.005402971059083939,
                0.002539718756452203,
                0.002274157013744116,
                -0.007198230363428593,
                -0.00765569880604744,
                0.00020603378652594984,
                0.0011382389348000288,
                -0.003081814618781209,
                -0.011801423504948616,
                -0.015083728358149529,
                0.005464097950607538,
                0.010187924839556217,
                -0.004323324654251337,
                -0.00011375680333003402,
                -0.008791754022240639,
                0.01586623676121235,
                0.0037194753531366587,
                0.019002456218004227,
                -0.019864803180098534,
                0.003238363889977336,
                0.0014696083962917328,
                0.010835191234946251,
                0.0016657001106068492,
                0.010470454581081867,
                0.0053490083664655685,
                0.011720910668373108,
                -0.0010770362569019198,
                0.0025537835899740458,
                0.0027174761053174734,
                0.005391533020883799,
                0.014751718379557133,
                0.0069891344755887985,
                -0.012066813185811043,
                -0.0015415999805554748,
                0.0017314705764874816,
                -0.008401318453252316,
                0.0041507091373205185,
                0.015714086592197418,
                -0.00914669968187809,
                0.0042388248257339,
                0.0014654448023065925,
                -0.006692084483802319,
                -0.006539007183164358,
                0.007619171869009733,
                -0.006166720297187567,
                0.008083699271082878,
                -0.011324085295200348,
                0.001694924314506352,
                -0.0012934813275933266,
                -0.004129795357584953,
                -0.0033203931525349617,
                -0.001627309829927981,
                0.0034895313438028097,
                -0.008789831772446632,
                0.008142312057316303,
                -0.0056675937958061695,
                -0.003229080466553569,
                0.009543546475470066,
                0.007651923224329948,
                -0.005890597589313984,
                -0.002462843433022499,
                0.017154820263385773,
                0.003860524855554104,
                0.008028418757021427,
                -0.016788646578788757,
                -0.0014009978622198105,
                0.007456307299435139,
                0.005133774131536484,
                -0.0024592429399490356,
                -0.003761288244277239,
                -0.0033889226615428925,
                -0.005490058567374945,
                -0.00290249427780509,
                -0.009875292889773846,
                0.006756747141480446,
                0.014052546583116055,
                0.007548724766820669,
                -0.0031996462494134903,
                -0.0007379423477686942,
                -0.00926402397453785,
                -0.012146281078457832,
                -0.0017144386656582355,
                0.0002925474545918405,
                0.00612926809117198,
                -0.007463840767741203,
                0.0015084424521774054,
                0.004507345147430897,
                -0.010492057539522648,
                -0.013106492348015308,
                0.0014187515480443835,
                -0.009594161063432693,
                -0.01117070484906435,
                0.003913465421646833,
                -0.007161159534007311
            ],
            [
                -0.8019142150878906,
                0.16646257042884827,
                0.7923363447189331,
                0.9920753240585327,
                1.278568983078003,
                -0.7985495924949646,
                -0.9015987515449524,
                -1.0901272296905518,
                -1.0085947513580322,
                -0.8965240120887756,
                -0.6471729874610901,
                -0.4804953336715698,
                -0.41368067264556885,
                -0.3310220241546631,
                -0.2624811828136444,
                -0.14658400416374207,
                -0.03976475074887276,
                0.019168246537446976,
                0.20562854409217834,
                0.35228636860847473,
                0.4918496906757355,
                0.6133312582969666,
                0.7574898600578308,
                0.864912748336792,
                0.9144793748855591,
                0.9882748126983643,
                1.0982507467269897,
                -0.8221065402030945,
                -0.9196821451187134,
                -1.1123416423797607,
                -1.0292176008224487,
                -0.9121102094650269,
                -0.6581943035125732,
                -0.5099118947982788,
                -0.4337400794029236,
                -0.3788737952709198,
                -0.299389511346817,
                -0.18587829172611237,
                -0.07986672222614288,
                0.008485264144837856,
                0.16927042603492737,
                0.302828311920166,
                0.4574876129627228,
                0.6012147665023804,
                0.7287037968635559,
                0.8360801935195923,
                0.8888289928436279,
                0.9678786993026733,
                1.098707914352417,
                -0.7904078960418701,
                -0.8892053365707397,
                -1.077047348022461,
                -0.9682032465934753,
                -0.8869345188140869,
                -0.6303719282150269,
                -0.44909748435020447,
                -0.38378822803497314,
                -0.3028337061405182,
                -0.22434106469154358,
                -0.10953515768051147,
                -0.00033004587749019265,
                0.061415597796440125,
                0.24394086003303528,
                0.37435653805732727,
                0.5059941411018372,
                0.6390036940574646,
                0.7708134651184082,
                0.8823539614677429,
                0.9310746192932129,
                0.9922515153884888,
                1.0856292247772217,
                0.17584095895290375,
                0.20449881255626678,
                0.24011221528053284,
                0.2804483473300934,
                0.33656811714172363,
                0.3993309736251831,
                0.5090622305870056,
                0.6440280079841614,
                0.7261642813682556,
                0.7646820545196533,
                0.7753000855445862,
                0.804376482963562,
                0.7739617228507996,
                0.7620371580123901,
                -0.9635993242263794,
                -0.887708306312561,
                -0.8000448942184448,
                -0.6618859171867371,
                -0.5412515997886658,
                -0.42823079228401184,
                -0.21981525421142578,
                0.025565730407834053,
                0.3078249990940094,
                0.49735718965530396,
                0.6256445050239563,
                0.7292872071266174,
                0.8004767894744873,
                0.8511986136436462,
                -0.9877178072929382,
                -0.9034430980682373,
                -0.8146395683288574,
                -0.682981014251709,
                -0.5693891644477844,
                -0.4598115384578705,
                -0.24543781578540802,
                -0.005785753950476646,
                0.27922651171684265,
                0.4724985957145691,
                0.6086534261703491,
                0.7041148543357849,
                0.7861363887786865,
                0.8391528725624084,
                -0.9492675065994263,
                -0.8761275410652161,
                -0.7762969732284546,
                -0.6376461386680603,
                -0.510867714881897,
                -0.401888370513916,
                -0.1839504987001419,
                0.0584852509200573,
                0.3282882869243622,
                0.5166159868240356,
                0.6378705501556396,
                0.7402950525283813,
                0.8107101917266846,
                0.8620535135269165,
                -0.8896999955177307,
                -0.7526721358299255,
                -0.6546484231948853,
                -0.4931096136569977,
                -0.3394961655139923,
                -0.19998691976070404,
                0.019340762868523598,
                0.2588876783847809,
                0.5120585560798645,
                0.6757381558418274,
                0.7832385301589966,
                0.8335174322128296,
                0.862313985824585,
                0.8616967797279358,
                -0.9003414511680603,
                -0.776692807674408,
                -0.6805683970451355,
                -0.5224984288215637,
                -0.3744142949581146,
                -0.24529361724853516,
                -0.015626350417733192,
                0.23025408387184143,
                0.4906308650970459,
                0.6659255623817444,
                0.776843249797821,
                0.8221682906150818,
                0.8591906428337097,
                0.8640370965003967,
                -0.8753217458724976,
                -0.7318181991577148,
                -0.6364257335662842,
                -0.4562135636806488,
                -0.3093027174472809,
                -0.17001661658287048,
                0.05350344628095627,
                0.27638179063796997,
                0.5313419699668884,
                0.6902073621749878,
                0.7945441007614136,
                0.8320842981338501,
                0.8539248108863831,
                0.8582890033721924
            ],
            [
                0.018664401024580002,
                0.01229043584316969,
                0.008247371762990952,
                0.015037848614156246,
                -0.00466398149728775,
                0.01342229638248682,
                -0.0021243563387542963,
                0.0005667110672220588,
                -0.005799276288598776,
                -0.013427749276161194,
                -0.009973826818168163,
                0.005670909304171801,
                0.00563070410862565,
                0.0033737558405846357,
                -0.000807295786216855,
                0.000558067811653018,
                0.002873663092032075,
                -0.01507982425391674,
                0.0036981485318392515,
                -0.010086334310472012,
                -0.005543163046240807,
                -0.007054116111248732,
                -0.0026330589316785336,
                0.004476249683648348,
                0.000602145679295063,
                0.0019374563125893474,
                0.008386792615056038,
                0.009148347191512585,
                0.007206636480987072,
                0.008949167095124722,
                0.0026273911353200674,
                -0.01358802616596222,
                -0.01048532035201788,
                0.01460601482540369,
                0.011763310991227627,
                0.0006647909176535904,
                -0.00641569634899497,
                0.003756068181246519,
                0.006297128275036812,
                0.005971203092485666,
                -0.0021212734282016754,
                -0.00475088506937027,
                -0.011522912420332432,
                0.019312679767608643,
                -0.002565505215898156,
                -0.011780898086726665,
                0.01678363047540188,
                -0.003551107132807374,
                0.01233004778623581,
                0.009268504567444324,
                0.004902859218418598,
                0.0019002442713826895,
                -0.02049771137535572,
                0.00019765507022384554,
                0.006551036611199379,
                0.004779308568686247,
                -0.011526774615049362,
                0.011121522635221481,
                0.008386720903217793,
                -0.0028831816744059324,
                0.0022688391618430614,
                -0.00849588867276907,
                -0.005495445802807808,
                0.001466748071834445,
                -0.002862005028873682,
                -0.008729688823223114,
                -0.002273570979014039,
                -0.009685331024229527,
                0.00306929973885417,
                0.008680739440023899,
                0.0007099331123754382,
                0.01751607097685337,
                0.014300900511443615,
                0.014305979944765568,
                0.021173149347305298,
                0.002128341468051076,
                0.0006755944923497736,
                0.005812563933432102,
                -0.0043676989153027534,
                0.03262251988053322,
                0.009856908582150936,
                -0.014923784881830215,
                -0.010752894915640354,
                0.004926284309476614,
                0.00023707303625997156,
                0.0024860117118805647,
                -0.009335777722299099,
                -0.007052452303469181,
                -0.006902816239744425,
                -0.0033627422526478767,
                -0.0034640899393707514,
                -0.0006853537051938474,
                -0.0034797852858901024,
                -0.004138347692787647,
                -0.0037998759653419256,
                0.006320807617157698,
                0.0041580344550311565,
                -0.006627701222896576,
                -0.0025538692716509104,
                0.003500246675685048,
                -0.0022320582065731287,
                -0.00532852066680789,
                0.00862610898911953,
                0.00499556353315711,
                0.002013279590755701,
                -0.001201138598844409,
                -0.005289379972964525,
                -0.0038725556805729866,
                0.002381625585258007,
                -0.00545492535457015,
                0.012719176709651947,
                0.005665251985192299,
                0.006350482814013958,
                0.0038992869667708874,
                -0.002247912110760808,
                -0.0022695926018059254,
                0.004571178928017616,
                -0.0001036672038026154,
                -0.0024845171719789505,
                -0.007586371619254351,
                -0.008088883012533188,
                -0.005305119790136814,
                -0.004923485219478607,
                -0.004216124769300222,
                0.007658580783754587,
                -0.005762198008596897,
                -0.0011144668096676469,
                -0.011685612611472607,
                -0.0017080403631553054,
                -0.003928305581212044,
                -0.00501988036558032,
                -0.008626946248114109,
                0.0012931037927046418,
                -0.006708723492920399,
                0.0014766121748834848,
                0.002170342020690441,
                -0.004414964467287064,
                -0.011761412024497986,
                -0.0002712602727115154,
                -0.006403980776667595,
                -0.0062698177061975,
                -0.00259474478662014,
                0.001838736585341394,
                -0.0010360080050304532,
                0.0003935880376957357,
                0.011050108820199966,
                -0.0013969147112220526,
                0.00329155963845551,
                0.003051130101084709,
                0.0029420829378068447,
                -0.00557979429140687,
                -0.0020191732328385115,
                -0.0010929759591817856,
                0.0016862087650224566,
                -0.0058121937327086926,
                0.0038339400198310614,
                -0.0006388277979567647,
                0.006105166859924793,
                0.00582866882905364,
                0.004992500878870487,
                -0.005933315958827734,
                0.00016528852574992925,
                -0.002255168976262212,
                0.012118993327021599,
                0.0016956652980297804,
                -0.003357370151206851,
                -0.0037122091744095087,
                -0.005771081428974867,
                -0.005401628091931343
            ],
            [
                -0.010026931762695312,
                -0.01291319727897644,
                0.028487781062722206,
                -0.015132280997931957,
                -0.004888296127319336,
                -0.009826909750699997,
                -0.00568515807390213,
                0.0014909548917785287,
                -0.0038729493971914053,
                -0.00305743794888258,
                0.01596917025744915,
                0.008272592909634113,
                -0.0087507963180542,
                0.0024610660038888454,
                -0.007323474623262882,
                0.000856443599332124,
                0.0008606511983089149,
                -0.01444733515381813,
                0.0038661854341626167,
                -0.009024336002767086,
                -0.008565543219447136,
                0.01056863833218813,
                0.0026924714911729097,
                -0.007449675351381302,
                0.004957298748195171,
                -0.0014101288979873061,
                -0.02142026461660862,
                -0.02442837692797184,
                -0.005130639765411615,
                0.017519749701023102,
                0.008425474166870117,
                0.01660051755607128,
                0.004027820657938719,
                0.008676743134856224,
                -0.009935338981449604,
                -0.01176357176154852,
                0.0035740192979574203,
                0.014448950067162514,
                0.009477443993091583,
                0.0001174584831460379,
                0.010861454531550407,
                -0.019235117360949516,
                0.0011557128746062517,
                0.018102338537573814,
                -0.0006527260411530733,
                0.004121285863220692,
                -0.0002553417580202222,
                -0.017640793696045876,
                -0.010943050496280193,
                -0.012163639068603516,
                -0.003003862453624606,
                -0.0037065218202769756,
                -0.0002901302941609174,
                -0.001759095466695726,
                -0.003237126162275672,
                0.010418384335935116,
                -0.0022833168040961027,
                -0.0009252041927538812,
                -0.005204022396355867,
                -0.016447709873318672,
                -0.0002705853257793933,
                0.0009923864854499698,
                -0.001850159140303731,
                0.003953838720917702,
                0.002900060499086976,
                0.01830393634736538,
                0.0006037635030224919,
                -0.005602837540209293,
                0.0185396671295166,
                -0.006573888938874006,
                -0.021032752469182014,
                0.00769138103350997,
                0.013440191745758057,
                -0.00388747313991189,
                0.0041243936866521835,
                0.008005719631910324,
                0.01460814755409956,
                0.009923816658556461,
                0.003251271788030863,
                -0.004618112929165363,
                -0.012998122721910477,
                0.017641648650169373,
                0.02326350100338459,
                0.02424979768693447,
                -0.011665298603475094,
                0.012299618683755398,
                0.0015835848171263933,
                -0.002706909319385886,
                0.0064045642502605915,
                0.01112461369484663,
                0.005585274193435907,
                -0.00018545716011431068,
                -0.0003182033251505345,
                0.005306926555931568,
                -0.010265693999826908,
                -0.00985452625900507,
                -0.009192178025841713,
                -0.006725597195327282,
                -0.005412695929408073,
                0.0066678207367658615,
                -0.0035581011325120926,
                -0.004811965394765139,
                0.0032808443065732718,
                -0.004828155040740967,
                0.014298930764198303,
                -0.013153200969099998,
                0.0034235985949635506,
                0.00385292642749846,
                -0.0011263730702921748,
                -0.015289867296814919,
                -0.0031201140955090523,
                -0.0068014394491910934,
                0.013005301356315613,
                -0.00098453089594841,
                0.0017089348984882236,
                -0.01040345523506403,
                -0.007126754615455866,
                0.0076491269282996655,
                0.00705374963581562,
                0.014556494541466236,
                0.0031022955663502216,
                0.00511954165995121,
                -0.003035054774954915,
                -0.0006598324398510158,
                -0.0006706427084282041,
                -0.009161426685750484,
                -0.010333521291613579,
                -0.012468180619180202,
                0.0047359466552734375,
                -0.002404132392257452,
                0.003055046545341611,
                0.0014282424235716462,
                0.00716621708124876,
                -0.0022586239501833916,
                -0.005602601915597916,
                -0.003766014240682125,
                -0.00828887801617384,
                0.00037479016464203596,
                -0.006254355888813734,
                0.006396256387233734,
                -0.0011796938488259912,
                -0.0005697353044524789,
                -0.003088574158027768,
                0.0009609308908693492,
                -0.005477332044392824,
                0.010825235396623611,
                0.006145688705146313,
                0.0034084394574165344,
                -0.007640850730240345,
                0.00634181872010231,
                0.008556034415960312,
                -0.007538230624049902,
                0.005098346620798111,
                0.0031145147513598204,
                0.007665789220482111,
                0.006987618748098612,
                0.006714744959026575,
                0.004819737747311592,
                -0.016068164259195328,
                -0.0024128241930156946,
                -0.0035348893143236637,
                -0.010278214700520039,
                -0.0018816355150192976,
                -0.007157549262046814,
                -0.0009081489406526089,
                -0.005780359264463186,
                0.0034815343096852303,
                0.006577882915735245,
                0.00732683390378952
            ],
            [
                -0.17677950859069824,
                -0.17276407778263092,
                0.15803928673267365,
                -0.3636080026626587,
                -0.01296006329357624,
                -0.08073796331882477,
                -0.19227489829063416,
                -0.003366021206602454,
                -0.10214529931545258,
                -0.09653416275978088,
                0.02302653156220913,
                -0.06981489062309265,
                -0.1836502104997635,
                -0.17104099690914154,
                -0.21953049302101135,
                -0.16769346594810486,
                -0.1645035296678543,
                -0.20472867786884308,
                -0.20346975326538086,
                -0.1642276793718338,
                -0.17240485548973083,
                -0.08848889917135239,
                -0.2878838777542114,
                -0.14675825834274292,
                -0.09301798790693283,
                -0.056217387318611145,
                -0.10805113613605499,
                -0.145398810505867,
                -0.24871321022510529,
                -0.10696987062692642,
                -0.17764654755592346,
                0.07005888968706131,
                -0.07753272354602814,
                -0.021766209974884987,
                -0.22573229670524597,
                -0.16800062358379364,
                -0.11701266467571259,
                -0.12579184770584106,
                -0.1342688351869583,
                -0.18443207442760468,
                -0.03467913344502449,
                -0.17833483219146729,
                -0.13365575671195984,
                -0.22706691920757294,
                -0.28264644742012024,
                -0.12757959961891174,
                -0.09665846079587936,
                -0.05889351665973663,
                -0.0415131039917469,
                -0.17808941006660461,
                -0.2630874514579773,
                -0.03956495597958565,
                -0.015166142955422401,
                0.011175316758453846,
                -0.015601938590407372,
                -0.07736878097057343,
                -0.17198868095874786,
                -0.20813888311386108,
                -0.2750507891178131,
                -0.18403567373752594,
                -0.1302633434534073,
                -0.1178552433848381,
                -0.13024233281612396,
                -0.04027245566248894,
                -0.2031172513961792,
                -0.23360930383205414,
                -0.22692908346652985,
                -0.20643198490142822,
                -0.09773348271846771,
                -0.09963280707597733,
                -0.0865434855222702,
                -0.2348848581314087,
                -0.18136446177959442,
                -0.25104090571403503,
                -0.18509703874588013,
                -0.3320714831352234,
                -0.23172776401042938,
                -0.2022368311882019,
                -0.2315402776002884,
